{
    "1": {
        "weights": [
            [
                0.13944819569587708,
                0.0143132284283638,
                -0.29339656233787537,
                -0.1416865736246109,
                -0.09572122246026993,
                -0.016130506992340088,
                0.17959624528884888,
                -0.05303435027599335,
                0.3262881636619568,
                -0.2566535174846649,
                -0.1176823303103447,
                -0.03377443924546242,
                0.07093727588653564,
                0.1596151441335678,
                -0.2045297622680664,
                0.13644975423812866,
                0.24716289341449738,
                -0.057199519127607346,
                0.05846249312162399,
                0.09668270498514175,
                0.03199343755841255,
                0.25662025809288025,
                -0.013801313005387783,
                -0.01316454540938139,
                -0.13561689853668213,
                -0.04363883286714554,
                -0.2472658008337021,
                0.33629879355430603,
                -0.20814663171768188,
                0.37250465154647827,
                0.08283931761980057,
                -0.14810848236083984,
                -0.13816775381565094,
                -0.02791156992316246,
                0.3355742394924164,
                -0.004205426666885614,
                -0.28436604142189026,
                -0.11046357452869415,
                -0.3447036147117615,
                -0.22654518485069275,
                -0.13232755661010742,
                -0.3242271840572357,
                0.06285666674375534,
                0.08749045431613922,
                -0.1574561446905136,
                0.1101858913898468,
                -0.2127041518688202,
                0.08131478726863861,
                -0.022588983178138733,
                0.3341984450817108,
                -0.29281702637672424,
                -0.2655998468399048,
                -0.0041482714004814625,
                0.027770554646849632,
                -0.1237327829003334,
                -0.06405158340930939,
                -0.2942759096622467,
                -0.08016849309206009,
                0.05173654481768608,
                -0.0010325551265850663,
                -0.009593923576176167,
                -0.2157350331544876,
                0.283860445022583,
                -0.015319373458623886,
                -0.0839812308549881,
                -0.035589851438999176,
                0.04346306994557381,
                -0.24565355479717255,
                0.2176264375448227,
                0.18913426995277405,
                0.19551709294319153,
                -0.2810285985469818,
                -0.09814194589853287,
                0.04287657514214516,
                -0.02700778841972351,
                -0.05198350176215172,
                0.3436538875102997,
                0.23672354221343994,
                0.1489412635564804,
                -0.027594881132245064,
                -0.3490104675292969,
                0.3410208821296692,
                0.2856564521789551,
                -0.01983211375772953,
                -0.31035736203193665,
                0.03865024447441101,
                0.03978396952152252,
                -0.029901893809437752,
                -0.03554512560367584,
                -0.10928675532341003,
                -0.1082531213760376,
                0.03788847476243973,
                0.19512814283370972,
                -0.03623373806476593,
                -0.16520148515701294,
                -0.22048677504062653,
                0.1261306256055832,
                -0.06760308146476746,
                -0.013037632219493389,
                0.0386756956577301
            ],
            [
                0.28390875458717346,
                -0.3355540335178375,
                0.11567513644695282,
                -0.5505489706993103,
                0.19458235800266266,
                -0.30988267064094543,
                0.4064405858516693,
                -0.5327606201171875,
                0.15987499058246613,
                -0.6023425459861755,
                -0.09312958270311356,
                0.13739274442195892,
                -0.04133192077279091,
                0.5324124693870544,
                -0.7136004567146301,
                0.03627656027674675,
                0.20541317760944366,
                -0.22595550119876862,
                0.08757781982421875,
                0.5005087852478027,
                -0.5293685793876648,
                0.26721876859664917,
                0.16541263461112976,
                0.01409319881349802,
                -0.5719269514083862,
                0.6117919683456421,
                -0.35384246706962585,
                0.07266394793987274,
                -0.40405890345573425,
                0.1370905488729477,
                -0.48709264397621155,
                -0.46034160256385803,
                -0.4080495834350586,
                0.27713775634765625,
                -0.012262617237865925,
                -0.6097039580345154,
                -0.11035686731338501,
                -0.33940526843070984,
                -0.533980667591095,
                -0.16967447102069855,
                -0.6918448805809021,
                -0.5219479203224182,
                -0.15892347693443298,
                -0.5289709568023682,
                -0.5232325196266174,
                -0.836724579334259,
                -0.7825919389724731,
                0.6972526907920837,
                0.5149165987968445,
                0.05459754541516304,
                -0.4658459722995758,
                -0.3302013874053955,
                0.7294253706932068,
                -0.047294363379478455,
                0.00020813570881728083,
                0.4442536532878876,
                0.016313420608639717,
                0.539255678653717,
                0.19601665437221527,
                -0.2594897150993347,
                0.6425398588180542,
                -0.10889415442943573,
                0.3818964660167694,
                0.307576984167099,
                0.11718934774398804,
                0.5389639735221863,
                -0.24448391795158386,
                -0.13137726485729218,
                0.5226024389266968,
                0.44304490089416504,
                0.5527089238166809,
                -0.6109227538108826,
                -0.016105860471725464,
                -0.47782906889915466,
                -0.14782829582691193,
                0.43943774700164795,
                0.27874478697776794,
                0.45446887612342834,
                0.20362424850463867,
                -0.547824501991272,
                -0.16977185010910034,
                0.14151303470134735,
                0.260555624961853,
                -0.4646972119808197,
                -0.39194101095199585,
                -0.7687475085258484,
                0.519321620464325,
                -0.08685167133808136,
                0.1907886266708374,
                -0.28923895955085754,
                0.09110014140605927,
                0.25800806283950806,
                0.6946262121200562,
                0.5433980226516724,
                -0.3843916952610016,
                -0.3905312716960907,
                -0.042417168617248535,
                0.4684176445007324,
                -0.6558534502983093,
                0.5706199407577515
            ]
        ],
        "bias": [
            -0.007357070222496986,
            -0.06359487771987915,
            -0.05927319824695587,
            0.0019269291078671813,
            0.03324952349066734,
            -0.0379205048084259,
            -0.025992097333073616,
            -0.04777364805340767,
            -0.022325649857521057,
            0.07323145121335983,
            -0.009419749490916729,
            0.009011371061205864,
            -0.008329847827553749,
            -0.01813114434480667,
            0.049427054822444916,
            0.0051620397716760635,
            -0.022080564871430397,
            -0.024233926087617874,
            -0.0011099749244749546,
            0.01632622256875038,
            -0.09681831300258636,
            -0.03894263133406639,
            -0.050153572112321854,
            -0.00252436101436615,
            -0.008034368976950645,
            0.11172820627689362,
            0.036633167415857315,
            0.0014365669339895248,
            0.02937115915119648,
            -0.018286867067217827,
            -0.11509344726800919,
            0.004868867341428995,
            -0.0046136206947267056,
            0.03870868682861328,
            0.002868310082703829,
            -0.09289128333330154,
            -0.0015640145866200328,
            -0.009662977419793606,
            0.11505540460348129,
            0.004669093061238527,
            -0.005595378112047911,
            0.09347408264875412,
            -0.030398646369576454,
            -0.12727689743041992,
            0.010017955675721169,
            -0.1988045871257782,
            0.058695338666439056,
            0.0340418741106987,
            0.06731446087360382,
            0.009174073114991188,
            0.07578694075345993,
            0.04017620533704758,
            0.09859833866357803,
            -0.012860100716352463,
            -0.01548804435878992,
            0.08960302174091339,
            -0.0361052043735981,
            0.11954980343580246,
            0.01004103571176529,
            -0.03985438868403435,
            0.09379835426807404,
            -0.007617003750056028,
            -0.06903117895126343,
            0.039333950728178024,
            0.008166979998350143,
            0.09359259158372879,
            -0.043404657393693924,
            0.00024471862707287073,
            -0.04898413270711899,
            -0.03131764009594917,
            -0.03909403830766678,
            0.0870402455329895,
            -0.015487739816308022,
            -0.10015410929918289,
            -0.015639672055840492,
            0.04709402471780777,
            -0.057349808514118195,
            -0.05357271432876587,
            -0.009931014850735664,
            -0.06387809664011002,
            0.01966729760169983,
            -0.0196425411850214,
            -0.0709371417760849,
            -0.059504784643650055,
            0.06934012472629547,
            -0.14030125737190247,
            0.04926768317818642,
            -0.014743556268513203,
            0.022191433236002922,
            -0.010314520448446274,
            0.009863164275884628,
            0.012591089121997356,
            -0.050720032304525375,
            0.0959504172205925,
            0.011947369202971458,
            0.025564761832356453,
            -0.010760155506432056,
            0.09696701169013977,
            -0.09353072196245193,
            0.05552373081445694
        ],
        "activation": "sigmoid"
    },
    "2": {
        "weights": [
            [
                0.27971458435058594,
                -0.07359356433153152
            ],
            [
                -0.22250938415527344,
                -0.10368171334266663
            ],
            [
                0.1634024977684021,
                0.17917858064174652
            ],
            [
                -0.3657492995262146,
                0.16757820546627045
            ],
            [
                0.0735551118850708,
                -0.13934500515460968
            ],
            [
                -0.12095752358436584,
                0.28777173161506653
            ],
            [
                0.06737088412046432,
                -0.20966891944408417
            ],
            [
                -0.23927053809165955,
                0.34760144352912903
            ],
            [
                0.04104109853506088,
                -0.2467929571866989
            ],
            [
                -0.36627140641212463,
                -0.016481919214129448
            ],
            [
                -0.17084378004074097,
                0.06512128561735153
            ],
            [
                -0.06923093646764755,
                -0.20450779795646667
            ],
            [
                -0.07529209554195404,
                0.18375912308692932
            ],
            [
                0.041488926857709885,
                -0.3641902804374695
            ],
            [
                -0.32331955432891846,
                0.08809314668178558
            ],
            [
                0.15414251387119293,
                -0.12334952503442764
            ],
            [
                0.23200473189353943,
                -0.18473917245864868
            ],
            [
                0.07252859324216843,
                0.21540358662605286
            ],
            [
                0.11514725536108017,
                -0.028229884803295135
            ],
            [
                0.023130856454372406,
                -0.29470524191856384
            ],
            [
                -0.148394376039505,
                0.2681278884410858
            ],
            [
                0.27442386746406555,
                0.06309624761343002
            ],
            [
                0.14541693031787872,
                0.11918162554502487
            ],
            [
                0.07230011373758316,
                -0.06807869672775269
            ],
            [
                -0.19764380156993866,
                0.07844661176204681
            ],
            [
                0.22970201075077057,
                -0.1325485110282898
            ],
            [
                -0.24086414277553558,
                0.05137798562645912
            ],
            [
                0.1411682814359665,
                -0.06330211460590363
            ],
            [
                -0.12545137107372284,
                0.30807140469551086
            ],
            [
                0.1027429923415184,
                -0.1840992569923401
            ],
            [
                -0.1822485625743866,
                0.19814030826091766
            ],
            [
                -0.29381996393203735,
                0.20568883419036865
            ],
            [
                -0.2617267668247223,
                -0.0081348130479455
            ],
            [
                0.10714515298604965,
                -0.2403707355260849
            ],
            [
                0.1821676790714264,
                0.1418362706899643
            ],
            [
                -0.17544704675674438,
                0.05843373388051987
            ],
            [
                -0.1935162991285324,
                0.08281728625297546
            ],
            [
                -0.10419976711273193,
                0.3006049692630768
            ],
            [
                0.10983046144247055,
                0.3266027867794037
            ],
            [
                -0.236960768699646,
                -0.023222627118229866
            ],
            [
                -0.00019340473227202892,
                0.38088536262512207
            ],
            [
                -0.278576135635376,
                -0.027280107140541077
            ],
            [
                -0.13027678430080414,
                0.08631324768066406
            ],
            [
                -0.2144208550453186,
                0.16033241152763367
            ],
            [
                -0.24347323179244995,
                0.2188572734594345
            ],
            [
                -0.13164891302585602,
                0.13831672072410583
            ],
            [
                -0.08837684243917465,
                0.28763899207115173
            ],
            [
                0.3545551598072052,
                0.003901990130543709
            ],
            [
                0.13846705853939056,
                -0.014510211534798145
            ],
            [
                0.09673735499382019,
                -0.19630874693393707
            ],
            [
                -0.3663131892681122,
                0.07467402517795563
            ],
            [
                -0.20643478631973267,
                0.12397810816764832
            ],
            [
                0.2085961550474167,
                -0.15164600312709808
            ],
            [
                -0.16199694573879242,
                -0.01269189640879631
            ],
            [
                -0.15188828110694885,
                0.1188998818397522
            ],
            [
                0.34141644835472107,
                -0.22740772366523743
            ],
            [
                0.01351331640034914,
                0.14578112959861755
            ],
            [
                0.07065689563751221,
                -0.3215702474117279
            ],
            [
                0.24870121479034424,
                -0.24462930858135223
            ],
            [
                -0.0365057997405529,
                0.1334792524576187
            ],
            [
                0.3349815905094147,
                0.011453239247202873
            ],
            [
                -0.0781414806842804,
                0.07118075340986252
            ],
            [
                0.1450769305229187,
                -0.05104683339595795
            ],
            [
                0.15890242159366608,
                -0.07347292453050613
            ],
            [
                -0.12114133685827255,
                -0.2173258364200592
            ],
            [
                0.27897340059280396,
                -0.3428027927875519
            ],
            [
                -0.06851263344287872,
                0.24713395535945892
            ],
            [
                -0.05052105709910393,
                0.17520694434642792
            ],
            [
                0.3289702236652374,
                -0.25051599740982056
            ],
            [
                0.06120825931429863,
                -0.2705017030239105
            ],
            [
                0.255508154630661,
                -0.2451036274433136
            ],
            [
                9.6623640274629e-05,
                0.30881404876708984
            ],
            [
                -0.14949239790439606,
                0.005591803230345249
            ],
            [
                0.11992023140192032,
                0.28625425696372986
            ],
            [
                -0.1631825715303421,
                0.15115132927894592
            ],
            [
                0.18309016525745392,
                0.06920358538627625
            ],
            [
                0.10586792230606079,
                -0.310589462518692
            ],
            [
                0.2525508403778076,
                -0.20395603775978088
            ],
            [
                -0.05649636313319206,
                -0.2666737139225006
            ],
            [
                -0.2548060119152069,
                0.31140410900115967
            ],
            [
                -0.17651118338108063,
                0.22715802490711212
            ],
            [
                0.17422780394554138,
                -0.0473269559442997
            ],
            [
                -0.10959723591804504,
                -0.19641101360321045
            ],
            [
                -0.19768372178077698,
                0.23368686437606812
            ],
            [
                -0.27609238028526306,
                0.2680804431438446
            ],
            [
                -0.0044678389094769955,
                0.23728221654891968
            ],
            [
                0.35949045419692993,
                0.06071413680911064
            ],
            [
                0.021207459270954132,
                0.17718738317489624
            ],
            [
                0.2328769564628601,
                -0.021831978112459183
            ],
            [
                -0.18644295632839203,
                0.08689042925834656
            ],
            [
                -0.0076155816204845905,
                -0.20646162331104279
            ],
            [
                0.1362532526254654,
                -0.01395120657980442
            ],
            [
                -0.052228763699531555,
                -0.3759711980819702
            ],
            [
                0.2864541709423065,
                -0.05565394088625908
            ],
            [
                -0.33788231015205383,
                0.24310187995433807
            ],
            [
                -0.29340845346450806,
                -0.09154702723026276
            ],
            [
                -0.14594745635986328,
                0.0447559617459774
            ],
            [
                0.24417425692081451,
                -0.24821366369724274
            ],
            [
                0.1190776526927948,
                0.33669203519821167
            ],
            [
                0.21688708662986755,
                -0.2048528492450714
            ]
        ],
        "bias": [
            0.007631492801010609,
            -0.007631576620042324
        ],
        "activation": "softmax"
    }
}